digraph Tree {
node [shape=box] ;
0 [label="X[5] <= 9.055\ngini = 0.75\nsamples = 500\nvalue = [127, 125, 124, 124]"] ;
1 [label="X[5] <= 8.035\ngini = 0.689\nsamples = 377\nvalue = [127, 124, 112, 14]"] ;
0 -> 1 [labeldistance=2.5, labelangle=45, headlabel="True"] ;
2 [label="X[3] <= 2.75\ngini = 0.327\nsamples = 105\nvalue = [84, 19, 2, 0]"] ;
1 -> 2 ;
3 [label="X[3] <= 1.75\ngini = 0.159\nsamples = 69\nvalue = [63, 6, 0, 0]"] ;
2 -> 3 ;
4 [label="gini = 0.0\nsamples = 27\nvalue = [27, 0, 0, 0]"] ;
3 -> 4 ;
5 [label="X[0] <= 315.5\ngini = 0.245\nsamples = 42\nvalue = [36, 6, 0, 0]"] ;
3 -> 5 ;
6 [label="X[0] <= 295.5\ngini = 0.214\nsamples = 41\nvalue = [36, 5, 0, 0]"] ;
5 -> 6 ;
7 [label="X[5] <= 7.725\ngini = 0.444\nsamples = 6\nvalue = [4, 2, 0, 0]"] ;
6 -> 7 ;
8 [label="gini = 0.0\nsamples = 4\nvalue = [4, 0, 0, 0]"] ;
7 -> 8 ;
9 [label="gini = 0.0\nsamples = 2\nvalue = [0, 2, 0, 0]"] ;
7 -> 9 ;
10 [label="X[0] <= 310.0\ngini = 0.157\nsamples = 35\nvalue = [32, 3, 0, 0]"] ;
6 -> 10 ;
11 [label="X[5] <= 8.025\ngini = 0.069\nsamples = 28\nvalue = [27, 1, 0, 0]"] ;
10 -> 11 ;
12 [label="gini = 0.0\nsamples = 25\nvalue = [25, 0, 0, 0]"] ;
11 -> 12 ;
13 [label="X[6] <= 0.5\ngini = 0.444\nsamples = 3\nvalue = [2, 1, 0, 0]"] ;
11 -> 13 ;
14 [label="gini = 0.0\nsamples = 2\nvalue = [2, 0, 0, 0]"] ;
13 -> 14 ;
15 [label="gini = 0.0\nsamples = 1\nvalue = [0, 1, 0, 0]"] ;
13 -> 15 ;
16 [label="X[3] <= 2.25\ngini = 0.408\nsamples = 7\nvalue = [5, 2, 0, 0]"] ;
10 -> 16 ;
17 [label="gini = 0.0\nsamples = 4\nvalue = [4, 0, 0, 0]"] ;
16 -> 17 ;
18 [label="X[2] <= 3.0\ngini = 0.444\nsamples = 3\nvalue = [1, 2, 0, 0]"] ;
16 -> 18 ;
19 [label="gini = 0.0\nsamples = 2\nvalue = [0, 2, 0, 0]"] ;
18 -> 19 ;
20 [label="gini = 0.0\nsamples = 1\nvalue = [1, 0, 0, 0]"] ;
18 -> 20 ;
21 [label="gini = 0.0\nsamples = 1\nvalue = [0, 1, 0, 0]"] ;
5 -> 21 ;
22 [label="X[0] <= 307.5\ngini = 0.526\nsamples = 36\nvalue = [21, 13, 2, 0]"] ;
2 -> 22 ;
23 [label="X[2] <= 4.5\ngini = 0.266\nsamples = 19\nvalue = [16, 3, 0, 0]"] ;
22 -> 23 ;
24 [label="X[4] <= 3.25\ngini = 0.198\nsamples = 18\nvalue = [16, 2, 0, 0]"] ;
23 -> 24 ;
25 [label="gini = 0.0\nsamples = 11\nvalue = [11, 0, 0, 0]"] ;
24 -> 25 ;
26 [label="X[5] <= 7.845\ngini = 0.408\nsamples = 7\nvalue = [5, 2, 0, 0]"] ;
24 -> 26 ;
27 [label="gini = 0.0\nsamples = 5\nvalue = [5, 0, 0, 0]"] ;
26 -> 27 ;
28 [label="gini = 0.0\nsamples = 2\nvalue = [0, 2, 0, 0]"] ;
26 -> 28 ;
29 [label="gini = 0.0\nsamples = 1\nvalue = [0, 1, 0, 0]"] ;
23 -> 29 ;
30 [label="X[4] <= 3.25\ngini = 0.554\nsamples = 17\nvalue = [5, 10, 2, 0]"] ;
22 -> 30 ;
31 [label="X[1] <= 104.0\ngini = 0.628\nsamples = 11\nvalue = [5, 4, 2, 0]"] ;
30 -> 31 ;
32 [label="X[0] <= 318.5\ngini = 0.32\nsamples = 5\nvalue = [4, 1, 0, 0]"] ;
31 -> 32 ;
33 [label="gini = 0.0\nsamples = 3\nvalue = [3, 0, 0, 0]"] ;
32 -> 33 ;
34 [label="X[0] <= 321.0\ngini = 0.5\nsamples = 2\nvalue = [1, 1, 0, 0]"] ;
32 -> 34 ;
35 [label="gini = 0.0\nsamples = 1\nvalue = [0, 1, 0, 0]"] ;
34 -> 35 ;
36 [label="gini = 0.0\nsamples = 1\nvalue = [1, 0, 0, 0]"] ;
34 -> 36 ;
37 [label="X[1] <= 108.5\ngini = 0.611\nsamples = 6\nvalue = [1, 3, 2, 0]"] ;
31 -> 37 ;
38 [label="X[5] <= 7.895\ngini = 0.375\nsamples = 4\nvalue = [0, 3, 1, 0]"] ;
37 -> 38 ;
39 [label="gini = 0.0\nsamples = 1\nvalue = [0, 0, 1, 0]"] ;
38 -> 39 ;
40 [label="gini = 0.0\nsamples = 3\nvalue = [0, 3, 0, 0]"] ;
38 -> 40 ;
41 [label="X[3] <= 3.75\ngini = 0.5\nsamples = 2\nvalue = [1, 0, 1, 0]"] ;
37 -> 41 ;
42 [label="gini = 0.0\nsamples = 1\nvalue = [1, 0, 0, 0]"] ;
41 -> 42 ;
43 [label="gini = 0.0\nsamples = 1\nvalue = [0, 0, 1, 0]"] ;
41 -> 43 ;
44 [label="gini = 0.0\nsamples = 6\nvalue = [0, 6, 0, 0]"] ;
30 -> 44 ;
45 [label="X[0] <= 318.5\ngini = 0.66\nsamples = 272\nvalue = [43, 105, 110, 14]"] ;
1 -> 45 ;
46 [label="X[5] <= 8.745\ngini = 0.619\nsamples = 171\nvalue = [38, 89, 42, 2]"] ;
45 -> 46 ;
47 [label="X[1] <= 96.5\ngini = 0.589\nsamples = 151\nvalue = [37, 85, 28, 1]"] ;
46 -> 47 ;
48 [label="gini = 0.0\nsamples = 3\nvalue = [3, 0, 0, 0]"] ;
47 -> 48 ;
49 [label="X[2] <= 2.5\ngini = 0.582\nsamples = 148\nvalue = [34, 85, 28, 1]"] ;
47 -> 49 ;
50 [label="X[1] <= 103.5\ngini = 0.503\nsamples = 68\nvalue = [18, 44, 6, 0]"] ;
49 -> 50 ;
51 [label="X[5] <= 8.33\ngini = 0.302\nsamples = 27\nvalue = [5, 22, 0, 0]"] ;
50 -> 51 ;
52 [label="X[0] <= 309.5\ngini = 0.415\nsamples = 17\nvalue = [5, 12, 0, 0]"] ;
51 -> 52 ;
53 [label="X[0] <= 303.5\ngini = 0.5\nsamples = 8\nvalue = [4, 4, 0, 0]"] ;
52 -> 53 ;
54 [label="gini = 0.0\nsamples = 3\nvalue = [0, 3, 0, 0]"] ;
53 -> 54 ;
55 [label="X[5] <= 8.085\ngini = 0.32\nsamples = 5\nvalue = [4, 1, 0, 0]"] ;
53 -> 55 ;
56 [label="gini = 0.0\nsamples = 1\nvalue = [0, 1, 0, 0]"] ;
55 -> 56 ;
57 [label="gini = 0.0\nsamples = 4\nvalue = [4, 0, 0, 0]"] ;
55 -> 57 ;
58 [label="X[5] <= 8.28\ngini = 0.198\nsamples = 9\nvalue = [1, 8, 0, 0]"] ;
52 -> 58 ;
59 [label="gini = 0.0\nsamples = 8\nvalue = [0, 8, 0, 0]"] ;
58 -> 59 ;
60 [label="gini = 0.0\nsamples = 1\nvalue = [1, 0, 0, 0]"] ;
58 -> 60 ;
61 [label="gini = 0.0\nsamples = 10\nvalue = [0, 10, 0, 0]"] ;
51 -> 61 ;
62 [label="X[0] <= 312.5\ngini = 0.59\nsamples = 41\nvalue = [13, 22, 6, 0]"] ;
50 -> 62 ;
63 [label="X[3] <= 2.75\ngini = 0.547\nsamples = 26\nvalue = [5, 16, 5, 0]"] ;
62 -> 63 ;
64 [label="X[3] <= 2.25\ngini = 0.355\nsamples = 13\nvalue = [3, 10, 0, 0]"] ;
63 -> 64 ;
65 [label="X[5] <= 8.2\ngini = 0.5\nsamples = 6\nvalue = [3, 3, 0, 0]"] ;
64 -> 65 ;
66 [label="gini = 0.0\nsamples = 2\nvalue = [2, 0, 0, 0]"] ;
65 -> 66 ;
67 [label="X[4] <= 2.25\ngini = 0.375\nsamples = 4\nvalue = [1, 3, 0, 0]"] ;
65 -> 67 ;
68 [label="gini = 0.0\nsamples = 1\nvalue = [1, 0, 0, 0]"] ;
67 -> 68 ;
69 [label="gini = 0.0\nsamples = 3\nvalue = [0, 3, 0, 0]"] ;
67 -> 69 ;
70 [label="gini = 0.0\nsamples = 7\nvalue = [0, 7, 0, 0]"] ;
64 -> 70 ;
71 [label="X[0] <= 305.5\ngini = 0.615\nsamples = 13\nvalue = [2, 6, 5, 0]"] ;
63 -> 71 ;
72 [label="X[6] <= 0.5\ngini = 0.32\nsamples = 5\nvalue = [1, 4, 0, 0]"] ;
71 -> 72 ;
73 [label="gini = 0.0\nsamples = 4\nvalue = [0, 4, 0, 0]"] ;
72 -> 73 ;
74 [label="gini = 0.0\nsamples = 1\nvalue = [1, 0, 0, 0]"] ;
72 -> 74 ;
75 [label="X[1] <= 108.0\ngini = 0.531\nsamples = 8\nvalue = [1, 2, 5, 0]"] ;
71 -> 75 ;
76 [label="gini = 0.0\nsamples = 5\nvalue = [0, 0, 5, 0]"] ;
75 -> 76 ;
77 [label="X[0] <= 307.0\ngini = 0.444\nsamples = 3\nvalue = [1, 2, 0, 0]"] ;
75 -> 77 ;
78 [label="gini = 0.0\nsamples = 1\nvalue = [1, 0, 0, 0]"] ;
77 -> 78 ;
79 [label="gini = 0.0\nsamples = 2\nvalue = [0, 2, 0, 0]"] ;
77 -> 79 ;
80 [label="X[1] <= 108.5\ngini = 0.551\nsamples = 15\nvalue = [8, 6, 1, 0]"] ;
62 -> 80 ;
81 [label="X[5] <= 8.385\ngini = 0.521\nsamples = 13\nvalue = [8, 4, 1, 0]"] ;
80 -> 81 ;
82 [label="X[5] <= 8.26\ngini = 0.571\nsamples = 7\nvalue = [2, 4, 1, 0]"] ;
81 -> 82 ;
83 [label="X[0] <= 316.5\ngini = 0.444\nsamples = 3\nvalue = [2, 0, 1, 0]"] ;
82 -> 83 ;
84 [label="gini = 0.0\nsamples = 2\nvalue = [2, 0, 0, 0]"] ;
83 -> 84 ;
85 [label="gini = 0.0\nsamples = 1\nvalue = [0, 0, 1, 0]"] ;
83 -> 85 ;
86 [label="gini = 0.0\nsamples = 4\nvalue = [0, 4, 0, 0]"] ;
82 -> 86 ;
87 [label="gini = 0.0\nsamples = 6\nvalue = [6, 0, 0, 0]"] ;
81 -> 87 ;
88 [label="gini = 0.0\nsamples = 2\nvalue = [0, 2, 0, 0]"] ;
80 -> 88 ;
89 [label="X[0] <= 306.5\ngini = 0.622\nsamples = 80\nvalue = [16, 41, 22, 1]"] ;
49 -> 89 ;
90 [label="X[4] <= 3.75\ngini = 0.526\nsamples = 21\nvalue = [8, 12, 1, 0]"] ;
89 -> 90 ;
91 [label="X[5] <= 8.635\ngini = 0.498\nsamples = 15\nvalue = [8, 7, 0, 0]"] ;
90 -> 91 ;
92 [label="X[5] <= 8.235\ngini = 0.473\nsamples = 13\nvalue = [8, 5, 0, 0]"] ;
91 -> 92 ;
93 [label="X[4] <= 2.75\ngini = 0.444\nsamples = 6\nvalue = [2, 4, 0, 0]"] ;
92 -> 93 ;
94 [label="X[6] <= 0.5\ngini = 0.444\nsamples = 3\nvalue = [2, 1, 0, 0]"] ;
93 -> 94 ;
95 [label="gini = 0.0\nsamples = 2\nvalue = [2, 0, 0, 0]"] ;
94 -> 95 ;
96 [label="gini = 0.0\nsamples = 1\nvalue = [0, 1, 0, 0]"] ;
94 -> 96 ;
97 [label="gini = 0.0\nsamples = 3\nvalue = [0, 3, 0, 0]"] ;
93 -> 97 ;
98 [label="X[1] <= 99.5\ngini = 0.245\nsamples = 7\nvalue = [6, 1, 0, 0]"] ;
92 -> 98 ;
99 [label="gini = 0.0\nsamples = 1\nvalue = [0, 1, 0, 0]"] ;
98 -> 99 ;
100 [label="gini = 0.0\nsamples = 6\nvalue = [6, 0, 0, 0]"] ;
98 -> 100 ;
101 [label="gini = 0.0\nsamples = 2\nvalue = [0, 2, 0, 0]"] ;
91 -> 101 ;
102 [label="X[5] <= 8.645\ngini = 0.278\nsamples = 6\nvalue = [0, 5, 1, 0]"] ;
90 -> 102 ;
103 [label="gini = 0.0\nsamples = 5\nvalue = [0, 5, 0, 0]"] ;
102 -> 103 ;
104 [label="gini = 0.0\nsamples = 1\nvalue = [0, 0, 1, 0]"] ;
102 -> 104 ;
105 [label="X[6] <= 0.5\ngini = 0.613\nsamples = 59\nvalue = [8, 29, 21, 1]"] ;
89 -> 105 ;
106 [label="X[0] <= 308.5\ngini = 0.565\nsamples = 43\nvalue = [6, 25, 12, 0]"] ;
105 -> 106 ;
107 [label="X[5] <= 8.255\ngini = 0.612\nsamples = 7\nvalue = [3, 1, 3, 0]"] ;
106 -> 107 ;
108 [label="gini = 0.0\nsamples = 3\nvalue = [3, 0, 0, 0]"] ;
107 -> 108 ;
109 [label="X[5] <= 8.485\ngini = 0.375\nsamples = 4\nvalue = [0, 1, 3, 0]"] ;
107 -> 109 ;
110 [label="gini = 0.0\nsamples = 3\nvalue = [0, 0, 3, 0]"] ;
109 -> 110 ;
111 [label="gini = 0.0\nsamples = 1\nvalue = [0, 1, 0, 0]"] ;
109 -> 111 ;
112 [label="X[5] <= 8.395\ngini = 0.486\nsamples = 36\nvalue = [3, 24, 9, 0]"] ;
106 -> 112 ;
113 [label="X[3] <= 1.75\ngini = 0.355\nsamples = 13\nvalue = [3, 10, 0, 0]"] ;
112 -> 113 ;
114 [label="gini = 0.0\nsamples = 1\nvalue = [1, 0, 0, 0]"] ;
113 -> 114 ;
115 [label="X[5] <= 8.065\ngini = 0.278\nsamples = 12\nvalue = [2, 10, 0, 0]"] ;
113 -> 115 ;
116 [label="gini = 0.0\nsamples = 1\nvalue = [1, 0, 0, 0]"] ;
115 -> 116 ;
117 [label="X[5] <= 8.285\ngini = 0.165\nsamples = 11\nvalue = [1, 10, 0, 0]"] ;
115 -> 117 ;
118 [label="gini = 0.0\nsamples = 7\nvalue = [0, 7, 0, 0]"] ;
117 -> 118 ;
119 [label="X[3] <= 3.25\ngini = 0.375\nsamples = 4\nvalue = [1, 3, 0, 0]"] ;
117 -> 119 ;
120 [label="gini = 0.0\nsamples = 3\nvalue = [0, 3, 0, 0]"] ;
119 -> 120 ;
121 [label="gini = 0.0\nsamples = 1\nvalue = [1, 0, 0, 0]"] ;
119 -> 121 ;
122 [label="X[1] <= 104.5\ngini = 0.476\nsamples = 23\nvalue = [0, 14, 9, 0]"] ;
112 -> 122 ;
123 [label="X[5] <= 8.665\ngini = 0.408\nsamples = 7\nvalue = [0, 2, 5, 0]"] ;
122 -> 123 ;
124 [label="X[0] <= 311.5\ngini = 0.278\nsamples = 6\nvalue = [0, 1, 5, 0]"] ;
123 -> 124 ;
125 [label="X[4] <= 4.25\ngini = 0.5\nsamples = 2\nvalue = [0, 1, 1, 0]"] ;
124 -> 125 ;
126 [label="gini = 0.0\nsamples = 1\nvalue = [0, 0, 1, 0]"] ;
125 -> 126 ;
127 [label="gini = 0.0\nsamples = 1\nvalue = [0, 1, 0, 0]"] ;
125 -> 127 ;
128 [label="gini = 0.0\nsamples = 4\nvalue = [0, 0, 4, 0]"] ;
124 -> 128 ;
129 [label="gini = 0.0\nsamples = 1\nvalue = [0, 1, 0, 0]"] ;
123 -> 129 ;
130 [label="X[4] <= 2.75\ngini = 0.375\nsamples = 16\nvalue = [0, 12, 4, 0]"] ;
122 -> 130 ;
131 [label="gini = 0.0\nsamples = 1\nvalue = [0, 0, 1, 0]"] ;
130 -> 131 ;
132 [label="X[1] <= 106.5\ngini = 0.32\nsamples = 15\nvalue = [0, 12, 3, 0]"] ;
130 -> 132 ;
133 [label="gini = 0.0\nsamples = 6\nvalue = [0, 6, 0, 0]"] ;
132 -> 133 ;
134 [label="X[3] <= 3.75\ngini = 0.444\nsamples = 9\nvalue = [0, 6, 3, 0]"] ;
132 -> 134 ;
135 [label="X[5] <= 8.545\ngini = 0.48\nsamples = 5\nvalue = [0, 2, 3, 0]"] ;
134 -> 135 ;
136 [label="gini = 0.0\nsamples = 2\nvalue = [0, 2, 0, 0]"] ;
135 -> 136 ;
137 [label="gini = 0.0\nsamples = 3\nvalue = [0, 0, 3, 0]"] ;
135 -> 137 ;
138 [label="gini = 0.0\nsamples = 4\nvalue = [0, 4, 0, 0]"] ;
134 -> 138 ;
139 [label="X[1] <= 103.5\ngini = 0.602\nsamples = 16\nvalue = [2, 4, 9, 1]"] ;
105 -> 139 ;
140 [label="X[3] <= 3.0\ngini = 0.444\nsamples = 6\nvalue = [0, 4, 2, 0]"] ;
139 -> 140 ;
141 [label="gini = 0.0\nsamples = 2\nvalue = [0, 0, 2, 0]"] ;
140 -> 141 ;
142 [label="gini = 0.0\nsamples = 4\nvalue = [0, 4, 0, 0]"] ;
140 -> 142 ;
143 [label="X[1] <= 105.5\ngini = 0.46\nsamples = 10\nvalue = [2, 0, 7, 1]"] ;
139 -> 143 ;
144 [label="X[4] <= 3.25\ngini = 0.444\nsamples = 3\nvalue = [2, 0, 1, 0]"] ;
143 -> 144 ;
145 [label="gini = 0.0\nsamples = 2\nvalue = [2, 0, 0, 0]"] ;
144 -> 145 ;
146 [label="gini = 0.0\nsamples = 1\nvalue = [0, 0, 1, 0]"] ;
144 -> 146 ;
147 [label="X[5] <= 8.665\ngini = 0.245\nsamples = 7\nvalue = [0, 0, 6, 1]"] ;
143 -> 147 ;
148 [label="gini = 0.0\nsamples = 6\nvalue = [0, 0, 6, 0]"] ;
147 -> 148 ;
149 [label="gini = 0.0\nsamples = 1\nvalue = [0, 0, 0, 1]"] ;
147 -> 149 ;
150 [label="X[5] <= 9.03\ngini = 0.465\nsamples = 20\nvalue = [1, 4, 14, 1]"] ;
46 -> 150 ;
151 [label="X[1] <= 100.0\ngini = 0.364\nsamples = 18\nvalue = [1, 3, 14, 0]"] ;
150 -> 151 ;
152 [label="gini = 0.0\nsamples = 1\nvalue = [0, 1, 0, 0]"] ;
151 -> 152 ;
153 [label="X[1] <= 109.5\ngini = 0.304\nsamples = 17\nvalue = [1, 2, 14, 0]"] ;
151 -> 153 ;
154 [label="X[0] <= 312.5\ngini = 0.133\nsamples = 14\nvalue = [0, 1, 13, 0]"] ;
153 -> 154 ;
155 [label="X[1] <= 104.5\ngini = 0.375\nsamples = 4\nvalue = [0, 1, 3, 0]"] ;
154 -> 155 ;
156 [label="gini = 0.0\nsamples = 1\nvalue = [0, 1, 0, 0]"] ;
155 -> 156 ;
157 [label="gini = 0.0\nsamples = 3\nvalue = [0, 0, 3, 0]"] ;
155 -> 157 ;
158 [label="gini = 0.0\nsamples = 10\nvalue = [0, 0, 10, 0]"] ;
154 -> 158 ;
159 [label="X[5] <= 8.79\ngini = 0.667\nsamples = 3\nvalue = [1, 1, 1, 0]"] ;
153 -> 159 ;
160 [label="gini = 0.0\nsamples = 1\nvalue = [0, 1, 0, 0]"] ;
159 -> 160 ;
161 [label="X[0] <= 316.0\ngini = 0.5\nsamples = 2\nvalue = [1, 0, 1, 0]"] ;
159 -> 161 ;
162 [label="gini = 0.0\nsamples = 1\nvalue = [0, 0, 1, 0]"] ;
161 -> 162 ;
163 [label="gini = 0.0\nsamples = 1\nvalue = [1, 0, 0, 0]"] ;
161 -> 163 ;
164 [label="X[1] <= 107.0\ngini = 0.5\nsamples = 2\nvalue = [0, 1, 0, 1]"] ;
150 -> 164 ;
165 [label="gini = 0.0\nsamples = 1\nvalue = [0, 1, 0, 0]"] ;
164 -> 165 ;
166 [label="gini = 0.0\nsamples = 1\nvalue = [0, 0, 0, 1]"] ;
164 -> 166 ;
167 [label="X[5] <= 8.63\ngini = 0.505\nsamples = 101\nvalue = [5, 16, 68, 12]"] ;
45 -> 167 ;
168 [label="X[2] <= 2.5\ngini = 0.563\nsamples = 25\nvalue = [2, 10, 13, 0]"] ;
167 -> 168 ;
169 [label="X[5] <= 8.445\ngini = 0.32\nsamples = 5\nvalue = [0, 4, 1, 0]"] ;
168 -> 169 ;
170 [label="gini = 0.0\nsamples = 1\nvalue = [0, 0, 1, 0]"] ;
169 -> 170 ;
171 [label="gini = 0.0\nsamples = 4\nvalue = [0, 4, 0, 0]"] ;
169 -> 171 ;
172 [label="X[6] <= 0.5\ngini = 0.54\nsamples = 20\nvalue = [2, 6, 12, 0]"] ;
168 -> 172 ;
173 [label="X[3] <= 3.25\ngini = 0.444\nsamples = 3\nvalue = [1, 2, 0, 0]"] ;
172 -> 173 ;
174 [label="gini = 0.0\nsamples = 2\nvalue = [0, 2, 0, 0]"] ;
173 -> 174 ;
175 [label="gini = 0.0\nsamples = 1\nvalue = [1, 0, 0, 0]"] ;
173 -> 175 ;
176 [label="X[5] <= 8.15\ngini = 0.443\nsamples = 17\nvalue = [1, 4, 12, 0]"] ;
172 -> 176 ;
177 [label="gini = 0.0\nsamples = 1\nvalue = [0, 1, 0, 0]"] ;
176 -> 177 ;
178 [label="X[5] <= 8.345\ngini = 0.398\nsamples = 16\nvalue = [1, 3, 12, 0]"] ;
176 -> 178 ;
179 [label="gini = 0.0\nsamples = 4\nvalue = [0, 0, 4, 0]"] ;
178 -> 179 ;
180 [label="X[0] <= 319.5\ngini = 0.486\nsamples = 12\nvalue = [1, 3, 8, 0]"] ;
178 -> 180 ;
181 [label="gini = 0.0\nsamples = 1\nvalue = [0, 1, 0, 0]"] ;
180 -> 181 ;
182 [label="X[5] <= 8.375\ngini = 0.43\nsamples = 11\nvalue = [1, 2, 8, 0]"] ;
180 -> 182 ;
183 [label="gini = 0.0\nsamples = 1\nvalue = [0, 1, 0, 0]"] ;
182 -> 183 ;
184 [label="X[0] <= 324.0\ngini = 0.34\nsamples = 10\nvalue = [1, 1, 8, 0]"] ;
182 -> 184 ;
185 [label="X[5] <= 8.47\ngini = 0.219\nsamples = 8\nvalue = [0, 1, 7, 0]"] ;
184 -> 185 ;
186 [label="X[5] <= 8.45\ngini = 0.444\nsamples = 3\nvalue = [0, 1, 2, 0]"] ;
185 -> 186 ;
187 [label="gini = 0.0\nsamples = 2\nvalue = [0, 0, 2, 0]"] ;
186 -> 187 ;
188 [label="gini = 0.0\nsamples = 1\nvalue = [0, 1, 0, 0]"] ;
186 -> 188 ;
189 [label="gini = 0.0\nsamples = 5\nvalue = [0, 0, 5, 0]"] ;
185 -> 189 ;
190 [label="X[1] <= 108.5\ngini = 0.5\nsamples = 2\nvalue = [1, 0, 1, 0]"] ;
184 -> 190 ;
191 [label="gini = 0.0\nsamples = 1\nvalue = [1, 0, 0, 0]"] ;
190 -> 191 ;
192 [label="gini = 0.0\nsamples = 1\nvalue = [0, 0, 1, 0]"] ;
190 -> 192 ;
193 [label="X[5] <= 8.91\ngini = 0.444\nsamples = 76\nvalue = [3, 6, 55, 12]"] ;
167 -> 193 ;
194 [label="X[4] <= 1.75\ngini = 0.347\nsamples = 49\nvalue = [1, 6, 39, 3]"] ;
193 -> 194 ;
195 [label="gini = 0.0\nsamples = 1\nvalue = [0, 1, 0, 0]"] ;
194 -> 195 ;
196 [label="X[1] <= 114.0\ngini = 0.325\nsamples = 48\nvalue = [1, 5, 39, 3]"] ;
194 -> 196 ;
197 [label="X[6] <= 0.5\ngini = 0.3\nsamples = 47\nvalue = [1, 4, 39, 3]"] ;
196 -> 197 ;
198 [label="X[4] <= 3.25\ngini = 0.494\nsamples = 9\nvalue = [1, 2, 6, 0]"] ;
197 -> 198 ;
199 [label="gini = 0.0\nsamples = 2\nvalue = [0, 2, 0, 0]"] ;
198 -> 199 ;
200 [label="X[0] <= 324.5\ngini = 0.245\nsamples = 7\nvalue = [1, 0, 6, 0]"] ;
198 -> 200 ;
201 [label="gini = 0.0\nsamples = 5\nvalue = [0, 0, 5, 0]"] ;
200 -> 201 ;
202 [label="X[1] <= 109.5\ngini = 0.5\nsamples = 2\nvalue = [1, 0, 1, 0]"] ;
200 -> 202 ;
203 [label="gini = 0.0\nsamples = 1\nvalue = [0, 0, 1, 0]"] ;
202 -> 203 ;
204 [label="gini = 0.0\nsamples = 1\nvalue = [1, 0, 0, 0]"] ;
202 -> 204 ;
205 [label="X[3] <= 3.75\ngini = 0.237\nsamples = 38\nvalue = [0, 2, 33, 3]"] ;
197 -> 205 ;
206 [label="X[2] <= 4.5\ngini = 0.077\nsamples = 25\nvalue = [0, 1, 24, 0]"] ;
205 -> 206 ;
207 [label="gini = 0.0\nsamples = 23\nvalue = [0, 0, 23, 0]"] ;
206 -> 207 ;
208 [label="X[5] <= 8.75\ngini = 0.5\nsamples = 2\nvalue = [0, 1, 1, 0]"] ;
206 -> 208 ;
209 [label="gini = 0.0\nsamples = 1\nvalue = [0, 0, 1, 0]"] ;
208 -> 209 ;
210 [label="gini = 0.0\nsamples = 1\nvalue = [0, 1, 0, 0]"] ;
208 -> 210 ;
211 [label="X[0] <= 322.5\ngini = 0.462\nsamples = 13\nvalue = [0, 1, 9, 3]"] ;
205 -> 211 ;
212 [label="X[1] <= 109.5\ngini = 0.625\nsamples = 4\nvalue = [0, 1, 1, 2]"] ;
211 -> 212 ;
213 [label="X[5] <= 8.67\ngini = 0.5\nsamples = 2\nvalue = [0, 1, 1, 0]"] ;
212 -> 213 ;
214 [label="gini = 0.0\nsamples = 1\nvalue = [0, 0, 1, 0]"] ;
213 -> 214 ;
215 [label="gini = 0.0\nsamples = 1\nvalue = [0, 1, 0, 0]"] ;
213 -> 215 ;
216 [label="gini = 0.0\nsamples = 2\nvalue = [0, 0, 0, 2]"] ;
212 -> 216 ;
217 [label="X[0] <= 327.5\ngini = 0.198\nsamples = 9\nvalue = [0, 0, 8, 1]"] ;
211 -> 217 ;
218 [label="gini = 0.0\nsamples = 8\nvalue = [0, 0, 8, 0]"] ;
217 -> 218 ;
219 [label="gini = 0.0\nsamples = 1\nvalue = [0, 0, 0, 1]"] ;
217 -> 219 ;
220 [label="gini = 0.0\nsamples = 1\nvalue = [0, 1, 0, 0]"] ;
196 -> 220 ;
221 [label="X[4] <= 3.75\ngini = 0.532\nsamples = 27\nvalue = [2, 0, 16, 9]"] ;
193 -> 221 ;
222 [label="X[6] <= 0.5\ngini = 0.379\nsamples = 13\nvalue = [2, 0, 10, 1]"] ;
221 -> 222 ;
223 [label="X[5] <= 9.03\ngini = 0.444\nsamples = 3\nvalue = [2, 0, 1, 0]"] ;
222 -> 223 ;
224 [label="gini = 0.0\nsamples = 2\nvalue = [2, 0, 0, 0]"] ;
223 -> 224 ;
225 [label="gini = 0.0\nsamples = 1\nvalue = [0, 0, 1, 0]"] ;
223 -> 225 ;
226 [label="X[4] <= 3.25\ngini = 0.18\nsamples = 10\nvalue = [0, 0, 9, 1]"] ;
222 -> 226 ;
227 [label="gini = 0.0\nsamples = 7\nvalue = [0, 0, 7, 0]"] ;
226 -> 227 ;
228 [label="X[2] <= 3.5\ngini = 0.444\nsamples = 3\nvalue = [0, 0, 2, 1]"] ;
226 -> 228 ;
229 [label="gini = 0.0\nsamples = 2\nvalue = [0, 0, 2, 0]"] ;
228 -> 229 ;
230 [label="gini = 0.0\nsamples = 1\nvalue = [0, 0, 0, 1]"] ;
228 -> 230 ;
231 [label="X[1] <= 112.5\ngini = 0.49\nsamples = 14\nvalue = [0, 0, 6, 8]"] ;
221 -> 231 ;
232 [label="X[4] <= 4.75\ngini = 0.496\nsamples = 11\nvalue = [0, 0, 6, 5]"] ;
231 -> 232 ;
233 [label="X[5] <= 9.015\ngini = 0.444\nsamples = 9\nvalue = [0, 0, 6, 3]"] ;
232 -> 233 ;
234 [label="X[1] <= 110.5\ngini = 0.375\nsamples = 8\nvalue = [0, 0, 6, 2]"] ;
233 -> 234 ;
235 [label="gini = 0.0\nsamples = 3\nvalue = [0, 0, 3, 0]"] ;
234 -> 235 ;
236 [label="X[1] <= 111.5\ngini = 0.48\nsamples = 5\nvalue = [0, 0, 3, 2]"] ;
234 -> 236 ;
237 [label="X[3] <= 4.25\ngini = 0.444\nsamples = 3\nvalue = [0, 0, 1, 2]"] ;
236 -> 237 ;
238 [label="gini = 0.0\nsamples = 2\nvalue = [0, 0, 0, 2]"] ;
237 -> 238 ;
239 [label="gini = 0.0\nsamples = 1\nvalue = [0, 0, 1, 0]"] ;
237 -> 239 ;
240 [label="gini = 0.0\nsamples = 2\nvalue = [0, 0, 2, 0]"] ;
236 -> 240 ;
241 [label="gini = 0.0\nsamples = 1\nvalue = [0, 0, 0, 1]"] ;
233 -> 241 ;
242 [label="gini = 0.0\nsamples = 2\nvalue = [0, 0, 0, 2]"] ;
232 -> 242 ;
243 [label="gini = 0.0\nsamples = 3\nvalue = [0, 0, 0, 3]"] ;
231 -> 243 ;
244 [label="X[0] <= 319.0\ngini = 0.191\nsamples = 123\nvalue = [0, 1, 12, 110]"] ;
0 -> 244 [labeldistance=2.5, labelangle=-45, headlabel="False"] ;
245 [label="X[5] <= 9.175\ngini = 0.375\nsamples = 4\nvalue = [0, 1, 3, 0]"] ;
244 -> 245 ;
246 [label="gini = 0.0\nsamples = 3\nvalue = [0, 0, 3, 0]"] ;
245 -> 246 ;
247 [label="gini = 0.0\nsamples = 1\nvalue = [0, 1, 0, 0]"] ;
245 -> 247 ;
248 [label="X[5] <= 9.165\ngini = 0.14\nsamples = 119\nvalue = [0, 0, 9, 110]"] ;
244 -> 248 ;
249 [label="X[4] <= 4.25\ngini = 0.389\nsamples = 34\nvalue = [0, 0, 9, 25]"] ;
248 -> 249 ;
250 [label="X[1] <= 114.5\ngini = 0.488\nsamples = 19\nvalue = [0, 0, 8, 11]"] ;
249 -> 250 ;
251 [label="X[1] <= 110.5\ngini = 0.408\nsamples = 14\nvalue = [0, 0, 4, 10]"] ;
250 -> 251 ;
252 [label="X[2] <= 4.5\ngini = 0.494\nsamples = 9\nvalue = [0, 0, 4, 5]"] ;
251 -> 252 ;
253 [label="X[3] <= 4.25\ngini = 0.49\nsamples = 7\nvalue = [0, 0, 4, 3]"] ;
252 -> 253 ;
254 [label="X[5] <= 9.105\ngini = 0.375\nsamples = 4\nvalue = [0, 0, 1, 3]"] ;
253 -> 254 ;
255 [label="gini = 0.0\nsamples = 1\nvalue = [0, 0, 1, 0]"] ;
254 -> 255 ;
256 [label="gini = 0.0\nsamples = 3\nvalue = [0, 0, 0, 3]"] ;
254 -> 256 ;
257 [label="gini = 0.0\nsamples = 3\nvalue = [0, 0, 3, 0]"] ;
253 -> 257 ;
258 [label="gini = 0.0\nsamples = 2\nvalue = [0, 0, 0, 2]"] ;
252 -> 258 ;
259 [label="gini = 0.0\nsamples = 5\nvalue = [0, 0, 0, 5]"] ;
251 -> 259 ;
260 [label="X[0] <= 330.0\ngini = 0.32\nsamples = 5\nvalue = [0, 0, 4, 1]"] ;
250 -> 260 ;
261 [label="gini = 0.0\nsamples = 4\nvalue = [0, 0, 4, 0]"] ;
260 -> 261 ;
262 [label="gini = 0.0\nsamples = 1\nvalue = [0, 0, 0, 1]"] ;
260 -> 262 ;
263 [label="X[0] <= 327.5\ngini = 0.124\nsamples = 15\nvalue = [0, 0, 1, 14]"] ;
249 -> 263 ;
264 [label="gini = 0.0\nsamples = 10\nvalue = [0, 0, 0, 10]"] ;
263 -> 264 ;
265 [label="X[1] <= 113.5\ngini = 0.32\nsamples = 5\nvalue = [0, 0, 1, 4]"] ;
263 -> 265 ;
266 [label="gini = 0.0\nsamples = 1\nvalue = [0, 0, 1, 0]"] ;
265 -> 266 ;
267 [label="gini = 0.0\nsamples = 4\nvalue = [0, 0, 0, 4]"] ;
265 -> 267 ;
268 [label="gini = 0.0\nsamples = 85\nvalue = [0, 0, 0, 85]"] ;
248 -> 268 ;
}
